function [y1] = JOURNALNetworkFunction(x1)
%JOURNALNETWORKFUNCTION neural network simulation function.
%
% Auto-generated by MATLAB, 19-Jul-2022 16:36:14.
% 
% [y1] = JOURNALNetworkFunction(x1) takes these arguments:
%   x = 9xQ matrix, input #1
% and returns:
%   y = 1xQ matrix, output #1
% where Q is the number of samples.

%#ok<*RPMT0>

% ===== NEURAL NETWORK CONSTANTS =====

% Input 1
x1_step1.xoffset = [-1;-1;-1;-1;-1;-1;-1;-1;-1];
x1_step1.gain = [1;1;1;1;1;1;1;1;1];
x1_step1.ymin = -1;

% Layer 1
b1 = [-3.5751537489748379528;0.55579840603995100956;-2.069307769583384804;0.43657465394957806204;1.5855736874420165439;0.35278704131671539956;-0.33470234409689558763;-0.051398472489617166858;-0.038958591780630429102;-1.1716831707635013693;3.8905296352907066115;-1.1781677972644781782;0.41268452924123449899;3.0801781010837938624];
IW1_1 = [-0.035375346775433899604 0.095931074733883778261 0.17620785585443957122 -0.0075728591936785076208 -0.02526520743512031264 -2.5478107095986985975 0.0072006366948011071155 0.0034772839198663058058 -0.078038212692134859005;0.49188550495543098551 -0.28761439203621663729 -0.8184836416236758172 -0.027000890200099263161 0.27116474124693096259 -0.31086187159599976138 0.0093030825524840019686 -0.0065097586552904374013 -0.58683114994977603196;-0.024124360381432199268 -1.2507215815109677948 0.059441640641574346182 0.0018754165119341315634 0.14305900404351271082 0.046557377985544656784 -0.0010757947876210774418 0.0020310252527325168767 0.037453850621233956975;0.02976644279544192126 -0.13964637932745435633 -0.049597877336647028246 8.6890907015613037421e-05 -0.1239280248000129564 -0.07937363495432164795 0.00094772712036547224288 -0.00069261544536379504589 -0.026544933940720452648;0.13230829278348194 -0.15743195327672726558 -0.21720059353388954104 -0.016023488404125606904 0.07278780684548298574 -0.14411660392836897482 0.0035374266718603791619 9.3036848104721008891e-05 0.83432028967812421616;0.20302928274762410688 -0.49674298388881577004 -0.14194270989259563653 -0.12999749337506819047 -0.24936268554575730105 0.2570036309006248354 -0.016594599382564068774 -0.00545307682275690455 -0.50279646675779632314;-0.15753273232076023258 -0.20006799302790220785 0.55365272899729600642 0.0071867594040322226381 -0.12816487313388449931 -0.21282720975541766228 -0.00064647690951472221166 0.00011662357245137064659 -0.018808222210923278284;-0.093050764648687278591 0.021125056937369910554 0.2790178875806738068 0.013720797016287389694 0.021514742731151410143 0.023121636972571878166 -0.0016656005235855288193 -0.0004950989537155987049 0.047330314864982590828;-0.018312690583761059848 0.61430900655705933389 -0.093271449798127126218 0.00011093948427544494343 -0.082124753962039762079 0.11353874053468600291 0.00067923709290188113638 -6.9516026205760587248e-05 0.018227341311620095382;-1.1332815500141306675 0.24491040166743210937 0.27633989778183309927 0.011178824902242369757 -0.16355051078159069111 0.13940838018393544862 0.0090344665033552026823 0.0010028080335918385102 0.33040403510157850819;2.8456593095768982771 -0.12846388153641291607 -0.096041667928612906024 0.007308252096500003625 -0.26696629099702179344 -0.24953014478313095825 0.014093881212783924972 0.012093730531640754441 0.13391672872435361752;-0.0028631631734653108581 0.17052324171038635292 0.094183424585636874027 -0.0029730378690905425766 0.13210394934566258018 -0.55454305753380495059 -0.0021916013149124902344 -0.00033426876768910464711 0.017279988046300456123;0.14396398674282870345 -0.18149865226439512722 0.17487820186585603666 -0.0248201376059959955 -0.10671651377181544385 -0.10245686389228729485 0.0025152690466846466984 -0.0013557264603616375059 -0.12486122503753085966;0.12120949261587518619 -0.025472918895940364209 2.0408220988031122722 0.0090620460876954522789 0.0069216705316334139336 -0.052230593139236669575 0.0034496669142482280085 0.0025620492680020951794 0.044226138527587818827];

% Layer 2
b2 = [1.6696511964246643078;0.84648454334876233052;1.2954270791062165724;1.2039590110572779835;1.4754062157655045695;-0.38808777437638125596;-0.36048190883387470906;0.9769215115629987789;0.57980831393235010562;-0.082318381336490956124;-0.28917866387719914911;-0.75193937691786849609;1.0066453609110423972;-2.3810479921194036557];
LW2_1 = [-0.58307781884302722908 -0.18265897621903168235 -0.57294900328756936947 0.37984724370220473988 -0.33225954758530917843 0.53715499089570262203 0.67119493032978505553 0.11641733627029744735 0.48439409555813561781 -0.14863144303663761159 0.17145700886667050722 -0.6838805409023054338 0.54513806790665975122 0.097265233758866337377;-0.59375721076041709789 -0.34438449021970574115 0.60631111977283203007 0.45638190547500440131 1.9071555025546444995 0.68327831420612328284 0.5781185436362391572 0.10739856214903148457 0.67607378872112711132 -0.23981570533977117354 -0.22656027675259438059 -0.045267874931300286501 0.16372306874067621418 -0.057973370705981686068;-0.47929951134167364524 0.11156760118713626717 -0.0073348845168717813348 0.66672877363224225533 1.2421269586914214234 -0.076515132900093124624 0.065632388575787486973 0.11179440615687157023 0.16435401426431139882 0.67298228578624852414 -1.9946726343660505787 -0.75732838273347913294 -0.6315993583090334651 -0.74272768075497797025;-0.72074087111365048308 0.50716640801213097589 0.51115332624016251994 0.19002950165993143239 -2.3035259232823359632 0.16396261176363566281 0.35776628532499871183 -0.74519175155735861704 -0.13287675074122992647 -0.40803329599647297776 -0.060412748265559326755 0.89326363346946391353 0.083828652436757647437 0.61568890823979005589;-0.48295363599381813113 0.15680233740467039438 0.96184862771923029801 0.30731763237627990337 -0.08376962370095672461 -0.00500841875372347832 0.33482437280059934581 0.068163523274707898958 -0.15830056437458372987 0.151652994835125704 0.096284644790554929639 -0.26182050854727373368 -0.61244297708715456086 -0.59002388114844961375;0.34071802479756646553 0.035679292835648329651 -1.2513209856572993228 -0.84288091664587028173 0.25522354695002991143 -0.01530561880913591799 -0.040742789298680290311 -0.12496975935322328366 -0.48097809533934637871 0.28198873467086554845 0.75366100327030871586 0.46654460184535140321 -0.60010891055741966138 0.36829900565923007205;0.21034840655835546075 -0.16944305788044208838 1.5952986811430978076 0.60371579210049763908 0.093255521373874133984 -0.0022104170487608366252 -0.35640132467714930042 -0.14603689969020985928 0.58803918451553660596 -0.30591929301123521601 0.50342167675235194313 -0.22689192914135022927 0.56457936308704981254 0.40837979614654373872;1.0766924083080933183 0.076569074537154335758 -0.040354963568190321821 1.3413414785537749463 0.82273329744230039307 0.001354355403203245543 0.23192701008314153821 -0.33398436593627967017 -0.23470930662758437979 0.35483636735675222473 -0.57479617076817957066 0.49897002762334696779 -1.1888041467465604306 -0.34657472554046148128;1.2902612657051064637 0.20311065295302185851 0.27735827337945839766 -0.38308822422123572915 -0.85844529683439774193 -0.17485269204924511199 0.11037730831287782818 -0.63983031312649740752 -0.011185552520905087809 -0.94258665466470137329 0.50449174351218561974 0.2727539656533069512 0.34021108093927387994 0.57172917356257002552;-0.58776866645264813638 0.37457057851989389308 -0.0021201934557585917079 -1.3258894857758136698 -0.16996024256777228501 -0.074241047631462150913 0.5166105449921098991 -0.051919926535228984321 -0.23731220260852992077 -0.066064230340007926157 0.48937168274542852675 -0.76682648707745992844 -0.33098592223343265006 -0.074094423174095203066;-1.1407286086243224599 0.36564554278014654853 0.5081909753556217435 1.4451845305765609329 -0.69882564946484682089 0.043041057909247670832 0.12739890096183176249 0.6620888705061146462 0.060557079970326180285 -0.1394675202703662964 -1.0104666333146947732 0.5729559559741735919 -0.38438027100731897434 1.3238682894654478783;0.49871667472618386174 -0.24705906502120297819 0.63072453994863530991 1.0177058646212855386 0.42236589656418194183 -0.18942307463122884381 -0.65215083746407231935 0.36132229614499078441 0.13732631347520993237 -0.32235910713339460676 0.61737646030819048892 0.35251444324178121681 0.16986998930887853287 0.19973784106085995527;1.3231891072873562809 0.030784519511004700132 0.32319728935092445488 -0.76240551207557760716 -0.064852078912938676547 0.48568874811179352236 0.34984285588356656138 0.19614411321482594364 -0.0622532615624979066 0.67353363491059092816 1.1903048872915862333 0.67713143083725846338 -0.53710785258635551642 1.3886945366475063057;-0.57719908179793466552 -0.060596748089689927985 -0.52014394302256283797 0.079531765189063713395 1.1408855489474636347 -0.020594888707488084173 -0.20042071455371177069 1.4655453608506727736 0.056410332291034426255 0.2682155362261371967 -0.31896086005759688442 -0.59665383242839076239 -0.61270032923619677234 1.3557896021960822441];

% Layer 3
b3 = [1.7132148981811126109;1.7010706249013456404;1.5106916860335777297;-1.0089020044022092293;-0.36349129208684488601;-0.14226167090859620501;-0.0094522878787591420313;-0.69125087984843580635;-0.30239803327225101004;-0.26652221479504423218;-0.72963678263558584547;-1.5896943300518273645;-1.3377921169017390479;1.3126341058612491786];
LW3_2 = [-0.28153451861020512004 0.66305794588751931773 -0.55005574949646640626 -1.4115716209993409702 1.0564136800326719978 1.1303521151448789883 0.60045590856938046986 0.92592514282496485301 0.076556754907217708372 -0.067240474436884092868 1.3096227799845907569 0.56297657216763419274 0.34015884354449266169 -1.4679799282549330641;0.27771766564401551003 0.04964156903646512603 -1.118165315078894384 -0.57189537812572643904 -0.055192681477612165475 -0.54542713350803384564 0.57603491029516418198 1.0580683794081429117 0.012711416434293921693 -0.037121810282146151805 0.28295367743760202472 -0.021217077468125813272 -0.025309007778529565152 -0.75257622871714346946;0.26944265018601010198 0.89924220609432614637 0.0055251348917732985566 0.17129413122679854053 0.42721900801190471064 -0.11587590028842117973 -0.33847010149005740676 0.60605911982133853222 -0.77849370472874557247 -0.68553000359073301695 0.84331025644363866167 -0.11387393871815058854 -1.0335137989971447947 -0.47163236475035352768;0.49142731406186140886 -0.78514132631933264417 0.5137184026579828533 0.57475460261714272914 0.10589757022347527637 0.57216879224113470492 -0.037905747117604068896 0.030214964749208830797 0.098982536738895135486 -0.458150114207737158 -0.04232953589150049295 -0.72964810769143961799 -0.2749513550803638906 0.50180599054591334962;0.77363502752810686669 0.82460464938439725913 0.97528896109778651091 0.8074643456473047376 1.0495030676762056032 -0.95542425612587089656 0.0034011925341687746817 -1.373915122868438754 -0.63500244733151323118 0.69522212641617675555 -0.78394807389544229892 -0.024703026775854224073 -0.61227670630681729769 0.33791399263453048007;-1.1336965168713899477 -0.17192589181836406831 -0.25951159338596374582 -0.91061152908120701621 0.079635940307170680064 -0.31471669542447966439 -0.8424564867339382479 -0.46273010753631105274 -0.061149837969598878906 -0.038881936206564542136 -1.6369759485104911079 -0.56575888012180608477 -1.2609438756171120755 -1.2815623747767002083;-0.63343218159017233848 0.010851056750092468589 -0.62160004852359374006 -1.0047809027208605137 0.4489452888373457462 -0.099219884038524414072 0.060923842368042574469 -0.031178472286730936347 -0.089460476478386216637 0.24324396414781346287 0.12379243573115229771 -0.024634325754741968895 0.44724763472051271007 -0.12438904391517224823;-0.7808667647101895648 -1.1330024385836721112 0.04004863087636273411 0.04415302868074512388 0.45737644049024900328 0.54220916462286239401 -0.33313203283582909497 -0.52564284792776527766 -0.66717465687903454441 0.8385994367989264564 0.0019464030102557387282 0.37203977693802203763 0.39596012832265065073 -0.55338105363610989862;-0.67768185633616884189 0.28153018815998298585 -0.092979691066868416782 0.7705056747676316542 0.51871420174565996408 0.56850711736183634493 -0.32224747855468360846 0.93370074860220442226 -0.46995202412595166175 -0.33470490284341913867 0.093644738447803826942 -0.32138908356726347826 0.043080755837341132286 -0.40063352256953171926;-0.72166298864403755076 -1.570294767420316262 -0.7308795157652822061 -0.072102180506038920926 -0.90900471303150598423 0.70640571833591303541 0.93058484601035784678 -0.87571228504848452889 -0.48475369732488388097 0.27983030314048429332 0.50940020062703772474 -1.196170683021859027 -0.65503793043176428146 0.96023103753789829096;-0.041515643462032465749 -0.37030664733651469378 1.7307764561114433732 -1.0273548464360611199 0.24947584112266835144 0.29544269185421140334 -0.12857740696619859855 -0.075889302494687629896 -0.27520267243231905097 -0.84242222879267458779 -0.18383877240340332215 -0.63728584886535200038 0.12331423327830895453 0.023795059473910251668;-0.89232073707517611805 -0.80904105364579614879 0.44479571796885919444 0.48358881736246162042 1.2863576089210035924 -1.027325398227392661 1.5288156617954993255 -0.74190673529149397947 -0.47478851973218783034 0.39950017666398229821 0.47270825291481460839 0.33072700353421313757 0.31001606313832297257 0.66422386502914143591;-0.34141138876245064049 0.71233620356497651116 -0.58593740484149381409 0.37756692543701980691 -1.1090812533945189067 -0.69883292948633179975 -0.25802073473950726257 -0.18933857782118407309 -0.7815516831388196195 -0.37632601800732984332 0.91814706193643447207 -0.30162872444860661103 -0.61801334207192737402 1.2432434664642539879;0.13533498001930699406 -0.93142669268229727475 -0.51216241084332059241 -0.91693613352793978954 -0.5261148138769540239 -0.63059741516560430252 -0.32967367704682887242 0.39440367207830723251 -1.4722287861249032659 -0.46313088890023756949 0.028092724675580618698 0.24895755034402636263 0.20830715224454729451 0.31715154795654099118];

% Layer 4
b4 = 0.64679893323542392292;
LW4_3 = [-2.0819645142136091742 -0.57161033689710183392 -1.0922603804500490288 -0.79006157754891814804 0.91988496817726272958 -0.67101879265069341862 -0.10517008843733260948 -0.81369644906047922106 0.20907144302744734565 2.4616168004280001291 -0.045258983148346643155 -0.79668429649073368992 -0.79432356791919733752 0.07859467889260418616];

% Output 1
y1_step1.ymin = -1;
y1_step1.gain = 1;
y1_step1.xoffset = -1;

% ===== SIMULATION ========

% Dimensions
Q = size(x1,2); % samples

% Input 1
xp1 = mapminmax_apply(x1,x1_step1);

% Layer 1
a1 = tansig_apply(repmat(b1,1,Q) + IW1_1*xp1);

% Layer 2
a2 = tansig_apply(repmat(b2,1,Q) + LW2_1*a1);

% Layer 3
a3 = tansig_apply(repmat(b3,1,Q) + LW3_2*a2);

% Layer 4
a4 = repmat(b4,1,Q) + LW4_3*a3;

% Output 1
y1 = mapminmax_reverse(a4,y1_step1);
end

% ===== MODULE FUNCTIONS ========

% Map Minimum and Maximum Input Processing Function
function y = mapminmax_apply(x,settings)
  y = bsxfun(@minus,x,settings.xoffset);
  y = bsxfun(@times,y,settings.gain);
  y = bsxfun(@plus,y,settings.ymin);
end

% Sigmoid Symmetric Transfer Function
function a = tansig_apply(n,~)
  a = 2 ./ (1 + exp(-2*n)) - 1;
end

% Map Minimum and Maximum Output Reverse-Processing Function
function x = mapminmax_reverse(y,settings)
  x = bsxfun(@minus,y,settings.ymin);
  x = bsxfun(@rdivide,x,settings.gain);
  x = bsxfun(@plus,x,settings.xoffset);
end
